<?xml version="1.0"?>
<opencv_storage>
<stage2>
  <maxWeakCount>7</maxWeakCount>
  <stageThreshold>-1.7417224645614624e+00</stageThreshold>
  <weakClassifiers>
    <_>
      <internalNodes>
        0 -1 208266 7.1367189288139343e-02</internalNodes>
      <leafValues>
        -6.4936250448226929e-01 7.9046565294265747e-01</leafValues></_>
    <_>
      <internalNodes>
        0 -1 871799 3.6107979714870453e-02</internalNodes>
      <leafValues>
        -4.1098803281784058e-01 7.2341203689575195e-01</leafValues></_>
    <_>
      <internalNodes>
        0 -1 1050057 -4.5082449913024902e-02</internalNodes>
      <leafValues>
        8.3195453882217407e-01 -2.8551220893859863e-01</leafValues></_>
    <_>
      <internalNodes>
        0 -1 607281 -7.6419115066528320e-03</internalNodes>
      <leafValues>
        4.1760870814323425e-01 -6.0135132074356079e-01</leafValues></_>
    <_>
      <internalNodes>
        0 -1 609289 -1.8281523138284683e-02</internalNodes>
      <leafValues>
        6.9367438554763794e-01 -3.2845789194107056e-01</leafValues></_>
    <_>
      <internalNodes>
        0 -1 1000438 4.0620714426040649e-02</internalNodes>
      <leafValues>
        -3.3491453528404236e-01 7.4562209844589233e-01</leafValues></_>
    <_>
      <internalNodes>
        0 -1 1140662 7.1214400231838226e-02</internalNodes>
      <leafValues>
        -2.3278416693210602e-01 8.6886405944824219e-01</leafValues></_></weakClassifiers></stage2>
</opencv_storage>
