<?xml version="1.0"?>
<opencv_storage>
<stage6>
  <maxWeakCount>10</maxWeakCount>
  <stageThreshold>-1.4494946002960205e+00</stageThreshold>
  <weakClassifiers>
    <_>
      <internalNodes>
        0 -1 190504 7.7534988522529602e-02</internalNodes>
      <leafValues>
        -4.3315055966377258e-01 6.3044810295104980e-01</leafValues></_>
    <_>
      <internalNodes>
        0 -1 20914 -1.6290862113237381e-02</internalNodes>
      <leafValues>
        3.6824026703834534e-01 -6.0523504018783569e-01</leafValues></_>
    <_>
      <internalNodes>
        0 -1 1200365 -3.2083652913570404e-03</internalNodes>
      <leafValues>
        6.6399902105331421e-01 -2.7915963530540466e-01</leafValues></_>
    <_>
      <internalNodes>
        0 -1 926228 2.0627642516046762e-04</internalNodes>
      <leafValues>
        1.9392094016075134e-01 -8.7161570787429810e-01</leafValues></_>
    <_>
      <internalNodes>
        0 -1 925669 -3.9450911572203040e-04</internalNodes>
      <leafValues>
        -7.5218373537063599e-01 2.0951439440250397e-01</leafValues></_>
    <_>
      <internalNodes>
        0 -1 1157696 -2.9909205622971058e-03</internalNodes>
      <leafValues>
        5.0700712203979492e-01 -3.3841237425804138e-01</leafValues></_>
    <_>
      <internalNodes>
        0 -1 851711 -8.8704731315374374e-03</internalNodes>
      <leafValues>
        6.4384984970092773e-01 -2.5808578729629517e-01</leafValues></_>
    <_>
      <internalNodes>
        0 -1 532904 -2.8722654096782207e-03</internalNodes>
      <leafValues>
        2.1539774537086487e-01 -7.8207838535308838e-01</leafValues></_>
    <_>
      <internalNodes>
        0 -1 35481 6.6084344871342182e-04</internalNodes>
      <leafValues>
        1.6931761801242828e-01 -7.7453202009201050e-01</leafValues></_>
    <_>
      <internalNodes>
        0 -1 866721 3.7051464896649122e-03</internalNodes>
      <leafValues>
        -2.3983855545520782e-01 7.1349561214447021e-01</leafValues></_></weakClassifiers></stage6>
</opencv_storage>
